digraph Tree {
node [shape=box, style="filled, rounded", color="black", fontname="helvetica"] ;
edge [fontname="helvetica"] ;
0 [label="I_papr <= 26.19\ngini = 0.5\nsamples = 1388\nvalue = [1062, 1130]\nclass = QPSK", fillcolor="#f3f9fd"] ;
1 [label="Q_papr <= 28.76\ngini = 0.29\nsamples = 199\nvalue = [53, 249]\nclass = QPSK", fillcolor="#63b2eb"] ;
0 -> 1 [labeldistance=2.5, labelangle=45, headlabel="True"] ;
2 [label="I_fractal_dimension <= 1.99\ngini = 0.09\nsamples = 131\nvalue = [9, 186]\nclass = QPSK", fillcolor="#43a2e6"] ;
1 -> 2 ;
3 [label="Q_iqr_value <= 1.41\ngini = 0.06\nsamples = 124\nvalue = [6, 179]\nclass = QPSK", fillcolor="#40a0e6"] ;
2 -> 3 ;
4 [label="Q_complexity_index <= 21.03\ngini = 0.05\nsamples = 114\nvalue = [4, 162]\nclass = QPSK", fillcolor="#3e9fe6"] ;
3 -> 4 ;
5 [label="gini = 0.0\nsamples = 110\nvalue = [0, 162]\nclass = QPSK", fillcolor="#399de5"] ;
4 -> 5 ;
6 [label="gini = 0.0\nsamples = 4\nvalue = [4, 0]\nclass = BPSK", fillcolor="#e58139"] ;
4 -> 6 ;
7 [label="i_variance <= 1.1\ngini = 0.19\nsamples = 10\nvalue = [2, 17]\nclass = QPSK", fillcolor="#50a9e8"] ;
3 -> 7 ;
8 [label="gini = 0.0\nsamples = 1\nvalue = [2, 0]\nclass = BPSK", fillcolor="#e58139"] ;
7 -> 8 ;
9 [label="gini = 0.0\nsamples = 9\nvalue = [0, 17]\nclass = QPSK", fillcolor="#399de5"] ;
7 -> 9 ;
10 [label="i_mean <= -0.0\ngini = 0.42\nsamples = 7\nvalue = [3, 7]\nclass = QPSK", fillcolor="#8ec7f0"] ;
2 -> 10 ;
11 [label="i_mean <= -0.0\ngini = 0.38\nsamples = 3\nvalue = [3, 1]\nclass = BPSK", fillcolor="#eeab7b"] ;
10 -> 11 ;
12 [label="gini = 0.0\nsamples = 1\nvalue = [0, 1]\nclass = QPSK", fillcolor="#399de5"] ;
11 -> 12 ;
13 [label="gini = 0.0\nsamples = 2\nvalue = [3, 0]\nclass = BPSK", fillcolor="#e58139"] ;
11 -> 13 ;
14 [label="gini = 0.0\nsamples = 4\nvalue = [0, 6]\nclass = QPSK", fillcolor="#399de5"] ;
10 -> 14 ;
15 [label="Q_papr <= 32.04\ngini = 0.48\nsamples = 68\nvalue = [44.0, 63.0]\nclass = QPSK", fillcolor="#c3e1f7"] ;
1 -> 15 ;
16 [label="Q_papr <= 28.83\ngini = 0.45\nsamples = 53\nvalue = [28.0, 55.0]\nclass = QPSK", fillcolor="#9ecff2"] ;
15 -> 16 ;
17 [label="gini = 0.0\nsamples = 2\nvalue = [4, 0]\nclass = BPSK", fillcolor="#e58139"] ;
16 -> 17 ;
18 [label="I_fractal_dimension <= 1.98\ngini = 0.42\nsamples = 51\nvalue = [24.0, 55.0]\nclass = QPSK", fillcolor="#8fc8f0"] ;
16 -> 18 ;
19 [label="I_average_power <= 1.01\ngini = 0.5\nsamples = 31\nvalue = [23.0, 28.0]\nclass = QPSK", fillcolor="#dceefa"] ;
18 -> 19 ;
20 [label="Q_papr <= 29.18\ngini = 0.5\nsamples = 26\nvalue = [23.0, 20.0]\nclass = BPSK", fillcolor="#fcefe5"] ;
19 -> 20 ;
21 [label="gini = 0.0\nsamples = 4\nvalue = [7, 0]\nclass = BPSK", fillcolor="#e58139"] ;
20 -> 21 ;
22 [label="I_complexity_index <= 21.03\ngini = 0.49\nsamples = 22\nvalue = [16, 20]\nclass = QPSK", fillcolor="#d7ebfa"] ;
20 -> 22 ;
23 [label="gini = 0.0\nsamples = 12\nvalue = [0, 20]\nclass = QPSK", fillcolor="#399de5"] ;
22 -> 23 ;
24 [label="gini = 0.0\nsamples = 10\nvalue = [16, 0]\nclass = BPSK", fillcolor="#e58139"] ;
22 -> 24 ;
25 [label="gini = 0.0\nsamples = 5\nvalue = [0, 8]\nclass = QPSK", fillcolor="#399de5"] ;
19 -> 25 ;
26 [label="Q_complexity_index <= 21.0\ngini = 0.07\nsamples = 20\nvalue = [1, 27]\nclass = QPSK", fillcolor="#40a1e6"] ;
18 -> 26 ;
27 [label="gini = 0.0\nsamples = 19\nvalue = [0, 27]\nclass = QPSK", fillcolor="#399de5"] ;
26 -> 27 ;
28 [label="gini = 0.0\nsamples = 1\nvalue = [1, 0]\nclass = BPSK", fillcolor="#e58139"] ;
26 -> 28 ;
29 [label="I_papr <= 25.37\ngini = 0.44\nsamples = 15\nvalue = [16, 8]\nclass = BPSK", fillcolor="#f2c09c"] ;
15 -> 29 ;
30 [label="q_mean <= 0.0\ngini = 0.32\nsamples = 3\nvalue = [1, 4]\nclass = QPSK", fillcolor="#6ab6ec"] ;
29 -> 30 ;
31 [label="gini = 0.0\nsamples = 1\nvalue = [1, 0]\nclass = BPSK", fillcolor="#e58139"] ;
30 -> 31 ;
32 [label="gini = 0.0\nsamples = 2\nvalue = [0, 4]\nclass = QPSK", fillcolor="#399de5"] ;
30 -> 32 ;
33 [label="I_fractal_dimension <= 1.98\ngini = 0.33\nsamples = 12\nvalue = [15, 4]\nclass = BPSK", fillcolor="#eca36e"] ;
29 -> 33 ;
34 [label="gini = 0.0\nsamples = 8\nvalue = [14, 0]\nclass = BPSK", fillcolor="#e58139"] ;
33 -> 34 ;
35 [label="Q_average_power <= 1.0\ngini = 0.32\nsamples = 4\nvalue = [1, 4]\nclass = QPSK", fillcolor="#6ab6ec"] ;
33 -> 35 ;
36 [label="gini = 0.0\nsamples = 1\nvalue = [1, 0]\nclass = BPSK", fillcolor="#e58139"] ;
35 -> 36 ;
37 [label="gini = 0.0\nsamples = 3\nvalue = [0, 4]\nclass = QPSK", fillcolor="#399de5"] ;
35 -> 37 ;
38 [label="Q_peak_power <= 26.73\ngini = 0.5\nsamples = 1189\nvalue = [1009.0, 881.0]\nclass = BPSK", fillcolor="#fcefe6"] ;
0 -> 38 [labeldistance=2.5, labelangle=-45, headlabel="False"] ;
39 [label="Q_peak_power <= 26.08\ngini = 0.32\nsamples = 193\nvalue = [65, 258]\nclass = QPSK", fillcolor="#6bb6ec"] ;
38 -> 39 ;
40 [label="Q_iqr_value <= 1.35\ngini = 0.2\nsamples = 106\nvalue = [19, 152]\nclass = QPSK", fillcolor="#52a9e8"] ;
39 -> 40 ;
41 [label="Q_envelope_mean <= 1.34\ngini = 0.49\nsamples = 4\nvalue = [3, 4]\nclass = QPSK", fillcolor="#cee6f8"] ;
40 -> 41 ;
42 [label="I_peak_power <= 27.85\ngini = 0.38\nsamples = 2\nvalue = [3, 1]\nclass = BPSK", fillcolor="#eeab7b"] ;
41 -> 42 ;
43 [label="gini = 0.0\nsamples = 1\nvalue = [0, 1]\nclass = QPSK", fillcolor="#399de5"] ;
42 -> 43 ;
44 [label="gini = 0.0\nsamples = 1\nvalue = [3, 0]\nclass = BPSK", fillcolor="#e58139"] ;
42 -> 44 ;
45 [label="gini = 0.0\nsamples = 2\nvalue = [0, 3]\nclass = QPSK", fillcolor="#399de5"] ;
41 -> 45 ;
46 [label="q_mean <= -0.0\ngini = 0.18\nsamples = 102\nvalue = [16, 148]\nclass = QPSK", fillcolor="#4ea8e8"] ;
40 -> 46 ;
47 [label="Q_complexity_index <= 21.06\ngini = 0.39\nsamples = 11\nvalue = [5, 14]\nclass = QPSK", fillcolor="#80c0ee"] ;
46 -> 47 ;
48 [label="gini = 0.0\nsamples = 8\nvalue = [0, 14]\nclass = QPSK", fillcolor="#399de5"] ;
47 -> 48 ;
49 [label="gini = 0.0\nsamples = 3\nvalue = [5, 0]\nclass = BPSK", fillcolor="#e58139"] ;
47 -> 49 ;
50 [label="Q_fractal_dimension <= 1.98\ngini = 0.14\nsamples = 91\nvalue = [11, 134]\nclass = QPSK", fillcolor="#49a5e7"] ;
46 -> 50 ;
51 [label="Q_papr <= 25.47\ngini = 0.43\nsamples = 17\nvalue = [8, 18]\nclass = QPSK", fillcolor="#91c9f1"] ;
50 -> 51 ;
52 [label="i_mean <= 0.0\ngini = 0.17\nsamples = 9\nvalue = [1, 10]\nclass = QPSK", fillcolor="#4da7e8"] ;
51 -> 52 ;
53 [label="gini = 0.0\nsamples = 8\nvalue = [0, 10]\nclass = QPSK", fillcolor="#399de5"] ;
52 -> 53 ;
54 [label="gini = 0.0\nsamples = 1\nvalue = [1, 0]\nclass = BPSK", fillcolor="#e58139"] ;
52 -> 54 ;
55 [label="Q_complexity_index <= 21.04\ngini = 0.5\nsamples = 8\nvalue = [7, 8]\nclass = QPSK", fillcolor="#e6f3fc"] ;
51 -> 55 ;
56 [label="gini = 0.0\nsamples = 4\nvalue = [0, 8]\nclass = QPSK", fillcolor="#399de5"] ;
55 -> 56 ;
57 [label="gini = 0.0\nsamples = 4\nvalue = [7, 0]\nclass = BPSK", fillcolor="#e58139"] ;
55 -> 57 ;
58 [label="Q_peak_power <= 24.88\ngini = 0.05\nsamples = 74\nvalue = [3, 116]\nclass = QPSK", fillcolor="#3ea0e6"] ;
50 -> 58 ;
59 [label="Q_papr <= 24.78\ngini = 0.15\nsamples = 18\nvalue = [2, 23]\nclass = QPSK", fillcolor="#4aa6e7"] ;
58 -> 59 ;
60 [label="gini = 0.0\nsamples = 16\nvalue = [0, 23]\nclass = QPSK", fillcolor="#399de5"] ;
59 -> 60 ;
61 [label="gini = 0.0\nsamples = 2\nvalue = [2, 0]\nclass = BPSK", fillcolor="#e58139"] ;
59 -> 61 ;
62 [label="I_average_power <= 1.0\ngini = 0.02\nsamples = 56\nvalue = [1, 93]\nclass = QPSK", fillcolor="#3b9ee5"] ;
58 -> 62 ;
63 [label="gini = 0.0\nsamples = 43\nvalue = [0, 74]\nclass = QPSK", fillcolor="#399de5"] ;
62 -> 63 ;
64 [label="Q_fractal_dimension <= 1.98\ngini = 0.09\nsamples = 13\nvalue = [1, 19]\nclass = QPSK", fillcolor="#43a2e6"] ;
62 -> 64 ;
65 [label="Unnamed: 0 <= 1207.5\ngini = 0.44\nsamples = 2\nvalue = [1, 2]\nclass = QPSK", fillcolor="#9ccef2"] ;
64 -> 65 ;
66 [label="gini = 0.0\nsamples = 1\nvalue = [1, 0]\nclass = BPSK", fillcolor="#e58139"] ;
65 -> 66 ;
67 [label="gini = 0.0\nsamples = 1\nvalue = [0, 2]\nclass = QPSK", fillcolor="#399de5"] ;
65 -> 67 ;
68 [label="gini = 0.0\nsamples = 11\nvalue = [0, 17]\nclass = QPSK", fillcolor="#399de5"] ;
64 -> 68 ;
69 [label="I_complexity_index <= 20.98\ngini = 0.42\nsamples = 87\nvalue = [46.0, 106.0]\nclass = QPSK", fillcolor="#8fc8f0"] ;
39 -> 69 ;
70 [label="gini = 0.0\nsamples = 61\nvalue = [0, 106]\nclass = QPSK", fillcolor="#399de5"] ;
69 -> 70 ;
71 [label="gini = 0.0\nsamples = 26\nvalue = [46, 0]\nclass = BPSK", fillcolor="#e58139"] ;
69 -> 71 ;
72 [label="Q_complexity_index <= 20.95\ngini = 0.48\nsamples = 996\nvalue = [944.0, 623.0]\nclass = BPSK", fillcolor="#f6d4bc"] ;
38 -> 72 ;
73 [label="gini = 0.0\nsamples = 404\nvalue = [0, 623]\nclass = QPSK", fillcolor="#399de5"] ;
72 -> 73 ;
74 [label="gini = 0.0\nsamples = 592\nvalue = [944, 0]\nclass = BPSK", fillcolor="#e58139"] ;
72 -> 74 ;
}